
\data\
ngram 1=154
ngram 2=269
ngram 3=29

\1-grams:
-1.330694	</s>
-99	<s>	-0.07963476
-2.492062	A	0.02548663
-2.492062	Al	-0.004276182
-2.094122	El	-0.01137716
-2.492062	Es	-0.002870698
-1.679148	Estoy	-0.02860409
-2.492062	Hay	-0.004276182
-2.191032	Ipsum	-0.00998295
-2.191032	Lorem	-0.008474575
-2.31597	Línea	0.03666206
-2.492062	Muchas	-0.004276182
-2.492062	Si	-0.0007539036
-2.492062	Tampoco	-0.004276182
-2.492062	Viaje	-0.004276182
-1.646964	a	-0.0326806
-2.492062	acompana	-0.0007539036
-2.094122	al	0.03134413
-2.492062	aleatorio	0.01509276
-2.492062	altura	0.03383141
-2.492062	amo	0.004225775
-2.492062	archivos	0.03383141
-2.492062	asimismo	-0.004276182
-2.492062	años	0.01509276
-2.094122	blanco	0.04088945
-2.492062	cafe	-0.004276182
-1.751699	calle	0.009164533
-1.71391	caminando	-0.02309735
-2.492062	capítulos	-0.002870698
-2.492062	centrada	-0.003574008
-2.492062	coloca	-0.002166246
-2.492062	componga	-0.004276182
-1.588972	con	-0.003324396
-2.492062	contenido	-0.003574008
-2.492062	contrario	-0.003574008
-2.492062	correspondiente	0.01509276
-2.492062	corta	-0.003574008
-2.492062	cuando	0.001373256
-2.492062	cubierta	0.03383141
-1.060698	de	-0.0987974
-2.31597	debe	-0.007843864
-2.31597	del	-0.004304363
-2.492062	demasiado	-0.004276182
-2.492062	diseño	0.01509276
-2.492062	disponibles	0.01509276
-2.492062	distraerá	0.005659092
-2.492062	distribución	-0.003574008
-2.492062	doy	-0.004276182
-1.793092	el	0.01268671
-2.31597	empezar	0.0006999091
-2.191032	en	0.01714637
-2.492062	epígrafe	0.01509276
-2.094122	es	-0.002691126
-2.492062	eso	-0.004276182
-2.492062	espacio	0.002084631
-1.751699	espalda	-0.00957412
-2.492062	esta	-0.004276182
-2.492062	establecido	-0.004276182
-2.492062	estoy	-0.004276182
-2.492062	estrella	0.03383141
-2.492062	estudiando	-0.002166246
-2.492062	evolucionado	0.004225775
-2.492062	feliz	0.03383141
-2.31597	final	0.0296884
-2.492062	grabado	-0.003574008
-2.492062	gracias	0.01509276
-2.492062	ha	0.03383141
-2.31597	habrá	0.03102044
-2.492062	hace	-0.004276182
-2.492062	han	-0.004276182
-2.492062	hecho	-0.004276182
-2.492062	igual	-0.002166246
-2.492062	imprentas	-0.002166246
-1.159623	la	-0.09746022
-2.492062	lado	-0.002166246
-1.838849	lampara	0.01452626
-2.31597	las	-0.008548316
-2.492062	lector	-0.002166246
-2.492062	letras	0.01509276
-2.492062	libros	0.005659092
-2.492062	llamada	0.03383141
-2.492062	llevan	-0.003574008
-2.492062	llevar	-0.004276182
-2.094122	los	-0.01708226
-1.751699	luna	-0.02044111
-2.31597	luz	0.03102044
-1.947994	línea	0.01550205
-1.890002	mantequilla	-0.01094017
-2.492062	me	-0.004276182
-2.492062	menos	-0.004276182
-1.71391	mi	-0.02667888
-2.492062	mientras	0.002084631
-2.492062	mira	-0.004276182
-2.492062	moldes	0.01509276
-2.492062	muchas	-0.004276182
-2.31597	más	-0.007843864
-2.492062	máximo	-0.002166246
-2.31597	mínimo	-0.004977223
-2.492062	naturaleza	0.005659092
-2.31597	no	-0.006431524
-2.191032	noche	5.521427e-05
-2.492062	normal	0.03383141
-2.492062	nota	0.01509276
-2.31597	o	-0.008548316
-2.492062	ocupar	-0.003574008
-2.492062	ojos	0.01509276
-2.492062	para	-0.003574008
-2.492062	pasajes	0.03383141
-2.492062	pensamiento	-0.004276182
-2.492062	pertenezcan	-0.002166246
-2.191032	pie	0.02822753
-2.492062	plana	0.03383141
-2.492062	pone	-0.002166246
-2.492062	popular,	0.001373256
-1.646964	por	-0.009079851
-2.492062	primera	-0.004276182
-2.492062	propia	-0.001460648
-2.492062	proporciones	-0.004276182
-2.492062	puede	-0.003574008
-2.31597	punto	0.03045775
-2.31597	párrafo	0.01309875
-1.751699	que	-0.03084881
-2.492062	quienes	-0.004276182
-2.492062	relleno	0.03383141
-2.492062	revista	0.01509276
-2.01494	sangría	0.01480435
-2.094122	se	-0.01708226
-2.492062	sentirme	-0.004276182
-2.31597	ser	-0.007138268
-2.492062	será	0.001373256
-2.31597	simplemente	0.001419535
-2.492062	sin	-0.001460648
-2.492062	sitio	-0.004276182
-2.492062	soledad	0.01509276
-2.492062	solo	-0.002870698
-2.492062	su	-0.004276182
-2.492062	taza	0.03383141
-2.492062	tengo	0.004225775
-2.492062	terminar	-0.0007539036
-1.890002	texto	0.03589809
-2.492062	tiempo	0.002084631
-2.492062	tiene	-0.0007539036
-2.492062	través	0.03383141
-2.492062	tus	-0.004276182
-2.191032	un	-0.01281685
-1.947994	una	-0.01902284
-2.492062	usar	-0.002870698
-2.492062	variaciones	0.03383141
-2.492062	versiones	-0.004276182
-2.492062	vida	-0.002870698
-2.492062	vivo	-0.002166246
-2.094122	y	-0.008496255
-2.492062	áurea	-0.003574008
-2.492062	áureas	0.01509276

\2-grams:
-1.956649	<s> A
-1.956649	<s> Al
-1.558709	<s> El
-1.956649	<s> Es
-1.143735	<s> Estoy	0
-1.956649	<s> Hay
-1.780557	<s> Línea
-1.956649	<s> Muchas
-1.956649	<s> Si
-1.956649	<s> Tampoco
-1.956649	<s> Viaje
-1.956649	<s> asimismo
-1.956649	<s> es
-1.886491	A la
-1.886491	Al contrario
-1.89487	El máximo
-1.89487	El mínimo
-1.89487	El punto
-1.89487	El texto
-1.886491	Es un
-1.138303	Estoy caminando	0
-1.916454	Estoy estudiando
-1.886491	Hay muchas
-1.892095	Ipsum disponibles
-1.892095	Ipsum es
-1.892095	Ipsum no
-1.591065	Lorem Ipsum
-1.889302	Línea de
-1.889302	Línea que
-1.886491	Muchas versiones
-1.886491	Si una
-1.886491	Tampoco llevan
-1.886491	Viaje feliz
-1.140927	a mi	0
-1.919078	a quienes
-1.919078	a través
-1.886491	acompana una
-1.89487	al de
-1.718778	al pie	0.002792902
-1.89487	al que
-1.886491	aleatorio </s>
-1.886491	altura de
-1.886491	amo a
-1.886491	archivos de
-1.886491	asimismo será
-1.886491	años </s>
-1.718778	blanco con	-0.0006627722
-1.89487	blanco de
-1.89487	blanco que
-1.886491	cafe para
-1.170795	calle de	-0.007145166
-1.135663	caminando por	-0.0004128962
-1.886491	capítulos en
-1.886491	centrada debe
-1.886491	coloca al
-1.886491	componga sin
-1.924279	con el
-1.146128	con la	-0.005416738
-1.924279	con proporciones
-1.748188	con que
-1.886491	contenido del
-1.886491	contrario del
-1.886491	correspondiente </s>
-1.886491	corta habrá
-1.886491	cuando el
-1.886491	cubierta de
-1.836746	de Lorem	0.002792902
-2.012837	de blanco
-2.012837	de cafe
-2.012837	de cubierta
-2.012837	de final
-2.012837	de grabado
-1.035114	de la	-0.006630578
-1.836746	de las
-1.614897	de los
-1.410777	de mantequilla	0
-1.711807	de noche	0
-2.012837	de nota
-2.012837	de ocupar
-2.012837	de párrafo
-2.012837	de que
-2.012837	de relleno
-2.012837	de ser
-2.012837	de terminar
-2.012837	de texto
-2.012837	de tus
-2.012837	de un
-2.012837	de una
-2.012837	de usar
-1.889302	debe empezar
-1.889302	debe llevar
-1.889302	del pensamiento
-1.889302	del texto
-1.886491	demasiado tiempo
-1.886491	diseño </s>
-1.886491	disponibles </s>
-1.886491	distraerá con
-1.886491	distribución más
-1.886491	doy gracias
-1.908485	el contenido
-1.607455	el de	0.03074461
-1.908485	el mínimo
-1.908485	el párrafo
-1.607455	el texto	0.005318249
-1.889302	empezar el
-1.889302	empezar una
-1.892095	en esta
-1.892095	en la
-1.892095	en libros
-1.886491	epígrafe </s>
-1.89487	es el
-1.89487	es que
-1.718778	es simplemente
-1.886491	eso doy
-1.886491	espacio que
-1.170795	espalda </s>
-1.886491	esta soledad
-1.886491	establecido hace
-1.886491	estoy vivo
-1.886491	estrella de
-1.886491	estudiando y
-1.886491	evolucionado a
-1.886491	feliz de
-1.889302	final cuando
-1.889302	final de
-1.886491	grabado o
-1.886491	gracias </s>
-1.886491	ha de
-1.71321	habrá de
-1.886491	hace demasiado
-1.886491	han evolucionado
-1.886491	hecho establecido
-1.886491	igual al
-1.886491	imprentas y
-1.989005	la altura
-1.248642	la calle	0
-1.989005	la estrella
-1.335792	la lampara	0
-1.248642	la luna	0
-1.812913	la luz	0
-1.687975	la línea
-1.989005	la naturaleza
-1.989005	la primera
-1.989005	la propia
-1.687975	la sangría	-0.000107779
-1.989005	la vida
-1.886491	lado y
-1.252583	lampara de	0.01704333
-1.889302	las imprentas
-1.889302	las letras
-1.886491	lector se
-1.886491	letras </s>
-1.886491	libros con
-1.886491	llamada de
-1.886491	llevan punto
-1.886491	llevar llamada
-1.89487	los años
-1.89487	los capítulos
-1.89487	los moldes
-1.89487	los pasajes
-1.170795	luna a	0.002243354
-1.71321	luz de
-1.900367	línea centrada
-1.900367	línea corta
-1.900367	línea de
-1.900367	línea es
-1.900367	línea ha
-1.900367	línea áurea
-1.30103	mantequilla con	0.00990829
-1.886491	me acompana
-1.886491	menos normal
-1.173451	mi espalda	0
-1.913814	mi lado
-1.886491	mientras que
-1.886491	mira su
-1.886491	moldes </s>
-1.886491	muchas variaciones
-1.889302	más espacio
-1.889302	más o
-1.886491	máximo blanco
-1.71321	mínimo blanco
-1.886491	naturaleza con
-1.889302	no es
-1.889302	no sentirme
-1.591065	noche con	0.02090367
-1.886491	normal de
-1.886491	nota </s>
-1.889302	o epígrafe
-1.889302	o menos
-1.886491	ocupar más
-1.886491	ojos </s>
-1.886491	para no
-1.886491	pasajes de
-1.886491	pensamiento popular,
-1.886491	pertenezcan se
-1.591065	pie de
-1.886491	plana de
-1.886491	pone al
-1.886491	popular, el
-1.919078	por eso
-1.140927	por la	-0.00493563
-1.919078	por ser
-1.886491	primera plana
-1.886491	propia sangría
-1.886491	proporciones áureas
-1.886491	puede empezar
-1.889302	punto de
-1.889302	punto final
-1.889302	párrafo </s>
-1.889302	párrafo al
-1.911158	que el
-1.911158	que estoy
-1.911158	que habrá
-1.911158	que mira
-1.911158	que pertenezcan
-1.911158	que puede
-1.735066	que se
-1.911158	que tiene
-1.911158	que un
-1.886491	quienes amo
-1.886491	relleno de
-1.886491	revista </s>
-1.721536	sangría </s>
-1.897627	sangría correspondiente
-1.897627	sangría el
-1.897627	sangría por
-1.89487	se coloca
-1.89487	se componga
-1.89487	se distraerá
-1.89487	se pone
-1.886491	sentirme solo
-1.889302	ser igual
-1.889302	ser pie
-1.886491	será el
-1.889302	simplemente el
-1.889302	simplemente texto
-1.886491	sin sangría
-1.886491	sitio mientras
-1.886491	soledad </s>
-1.886491	solo en
-1.886491	su diseño
-1.886491	taza de
-1.886491	tengo a
-1.886491	terminar una
-1.90309	texto </s>
-1.90309	texto aleatorio
-1.425969	texto de
-1.886491	tiempo que
-1.886491	tiene una
-1.886491	través de
-1.886491	tus ojos
-1.892095	un hecho
-1.892095	un lector
-1.892095	un sitio
-1.900367	una distribución
-1.599337	una línea
-1.900367	una revista
-1.900367	una taza
-1.886491	usar Lorem
-1.886491	variaciones de
-1.886491	versiones han
-1.886491	vida en
-1.886491	vivo y
-1.89487	y archivos
-1.89487	y me
-1.89487	y por
-1.89487	y tengo
-1.886491	áurea debe
-1.886491	áureas </s>

\3-grams:
-1.138303	<s> Estoy caminando
-1.71321	de Lorem Ipsum
-1.170795	luna a mi
-1.170795	la calle de
-1.135663	Estoy caminando por
-1.71321	blanco con que
-1.30103	mantequilla con la
-1.591065	noche con la
-1.309098	calle de mantequilla
-1.610128	calle de noche
-1.591065	el de la
-1.252583	lampara de la
-1.170795	mi espalda </s>
-1.260601	con la lampara
-1.737723	con la luz
-1.191603	de la luna
-1.630936	de la línea
-1.630936	de la sangría
-1.173451	por la calle
-1.252583	la lampara de
-1.170795	la luna a
-1.71321	la luz de
-1.30103	de mantequilla con
-1.173451	a mi espalda
-1.591065	de noche con
-1.71321	al pie de
-1.135663	caminando por la
-1.716003	la sangría </s>
-1.591065	el texto de

\end\
